digraph Tree {
node [shape=box] ;
0 [label="shizhan <= 0.0\nentropy = 0.9991\nsamples = 29\nvalue = [14, 15]"] ;
1 [label="chuxiao <= 0.0\nentropy = 0.8454\nsamples = 11\nvalue = [8, 3]"] ;
0 -> 1 [labeldistance=2.5, labelangle=45, headlabel="True"] ;
2 [label="entropy = 0.0\nsamples = 3\nvalue = [3, 0]"] ;
1 -> 2 ;
3 [label="keshishu <= 0.0\nentropy = 0.9544\nsamples = 8\nvalue = [5, 3]"] ;
1 -> 3 ;
4 [label="entropy = 0.8113\nsamples = 4\nvalue = [3, 1]"] ;
3 -> 4 ;
5 [label="ziliao <= 0.0\nentropy = 1.0\nsamples = 4\nvalue = [2, 2]"] ;
3 -> 5 ;
6 [label="entropy = 0.9183\nsamples = 3\nvalue = [2, 1]"] ;
5 -> 6 ;
7 [label="entropy = 0.0\nsamples = 1\nvalue = [0, 1]"] ;
5 -> 7 ;
8 [label="ziliao <= 0.0\nentropy = 0.9183\nsamples = 18\nvalue = [6, 12]"] ;
0 -> 8 [labeldistance=2.5, labelangle=-45, headlabel="False"] ;
9 [label="chuxiao <= 0.0\nentropy = 0.9911\nsamples = 9\nvalue = [5, 4]"] ;
8 -> 9 ;
10 [label="keshishu <= 0.0\nentropy = 0.9183\nsamples = 6\nvalue = [4, 2]"] ;
9 -> 10 ;
11 [label="entropy = 0.0\nsamples = 1\nvalue = [0, 1]"] ;
10 -> 11 ;
12 [label="entropy = 0.7219\nsamples = 5\nvalue = [4, 1]"] ;
10 -> 12 ;
13 [label="keshishu <= 0.0\nentropy = 0.9183\nsamples = 3\nvalue = [1, 2]"] ;
9 -> 13 ;
14 [label="entropy = 0.0\nsamples = 1\nvalue = [1, 0]"] ;
13 -> 14 ;
15 [label="entropy = 0.0\nsamples = 2\nvalue = [0, 2]"] ;
13 -> 15 ;
16 [label="keshishu <= 0.0\nentropy = 0.5033\nsamples = 9\nvalue = [1, 8]"] ;
8 -> 16 ;
17 [label="chuxiao <= 0.0\nentropy = 0.7219\nsamples = 5\nvalue = [1, 4]"] ;
16 -> 17 ;
18 [label="entropy = 0.8113\nsamples = 4\nvalue = [1, 3]"] ;
17 -> 18 ;
19 [label="entropy = 0.0\nsamples = 1\nvalue = [0, 1]"] ;
17 -> 19 ;
20 [label="entropy = 0.0\nsamples = 4\nvalue = [0, 4]"] ;
16 -> 20 ;
}